#pragma once
#include <cstdarg>
namespace Eloquent {
    namespace ML {
        namespace Port {
            class XGBClassifier {
                public:
                    /**
                    * Predict class for features vector
                    */
                    int predict(float *x) {
                        float votes[4] = { 0.0f };
                        // tree #1
                        if (x[0] <= 34.0) {
                            votes[0] += 0.59135354;
                        }

                        else {
                            votes[0] += -0.20088874;
                        }

                        // tree #2
                        if (x[1] <= 97.0) {
                            if (x[0] <= 34.0) {
                                votes[1] += -0.19506466;
                            }

                            else {
                                votes[1] += 0.6471827;
                            }
                        }

                        else {
                            votes[1] += -0.19513004;
                        }

                        // tree #3
                        if (x[0] <= 46.0) {
                            if (x[0] <= 34.0) {
                                votes[2] += -0.19005868;
                            }

                            else {
                                votes[2] += 0.70824707;
                            }
                        }

                        else {
                            votes[2] += -0.19013648;
                        }

                        // tree #4
                        if (x[0] <= 143.0) {
                            votes[3] += -0.21534126;
                        }

                        else {
                            votes[3] += 0.49385738;
                        }

                        // tree #5
                        if (x[0] <= 34.0) {
                            votes[0] += 0.34966752;
                        }

                        else {
                            votes[0] += -0.18599924;
                        }

                        // tree #6
                        if (x[1] <= 97.0) {
                            if (x[0] <= 34.0) {
                                votes[1] += -0.18241715;
                            }

                            else {
                                votes[1] += 0.3623501;
                            }
                        }

                        else {
                            votes[1] += -0.1823994;
                        }

                        // tree #7
                        if (x[0] <= 46.0) {
                            if (x[0] <= 34.0) {
                                votes[2] += -0.17919001;
                            }

                            else {
                                votes[2] += 0.37409395;
                            }
                        }

                        else {
                            votes[2] += -0.17921528;
                        }

                        // tree #8
                        if (x[0] <= 143.0) {
                            votes[3] += -0.19448686;
                        }

                        else {
                            votes[3] += 0.32253784;
                        }

                        // tree #9
                        if (x[0] <= 34.0) {
                            votes[0] += 0.26679477;
                        }

                        else {
                            votes[0] += -0.17606151;
                        }

                        // tree #10
                        if (x[1] <= 97.0) {
                            if (x[0] <= 34.0) {
                                votes[1] += -0.17370191;
                            }

                            else {
                                votes[1] += 0.27250284;
                            }
                        }

                        else {
                            votes[1] += -0.17363046;
                        }

                        // tree #11
                        if (x[0] <= 46.0) {
                            if (x[0] <= 34.0) {
                                votes[2] += -0.17151272;
                            }

                            else {
                                votes[2] += 0.2776351;
                            }
                        }

                        else {
                            votes[2] += -0.17150071;
                        }

                        // tree #12
                        if (x[0] <= 143.0) {
                            votes[3] += -0.18160576;
                        }

                        else {
                            votes[3] += 0.25408062;
                        }

                        // tree #13
                        if (x[0] <= 34.0) {
                            votes[0] += 0.22495691;
                        }

                        else {
                            votes[0] += -0.16899255;
                        }

                        // tree #14
                        if (x[1] <= 97.0) {
                            if (x[0] <= 34.0) {
                                votes[1] += -0.16735293;
                            }

                            else {
                                votes[1] += 0.2281008;
                            }
                        }

                        else {
                            votes[1] += -0.16729517;
                        }

                        // tree #15
                        if (x[0] <= 46.0) {
                            if (x[0] <= 34.0) {
                                votes[2] += -0.16582815;
                            }

                            else {
                                votes[2] += 0.2308636;
                            }
                        }

                        else {
                            votes[2] += -0.16583294;
                        }

                        // tree #16
                        if (x[0] <= 143.0) {
                            votes[3] += -0.17276219;
                        }

                        else {
                            votes[3] += 0.21782155;
                        }

                        // tree #17
                        if (x[0] <= 34.0) {
                            votes[0] += 0.20050178;
                        }

                        else {
                            votes[0] += -0.16388145;
                        }

                        // tree #18
                        if (x[1] <= 97.0) {
                            if (x[0] <= 34.0) {
                                votes[1] += -0.1626787;
                            }

                            else {
                                votes[1] += 0.20240887;
                            }
                        }

                        else {
                            votes[1] += -0.16266623;
                        }

                        // tree #19
                        if (x[0] <= 46.0) {
                            if (x[0] <= 34.0) {
                                votes[2] += -0.16159469;
                            }

                            else {
                                votes[2] += 0.20403177;
                            }
                        }

                        else {
                            votes[2] += -0.16164488;
                        }

                        // tree #20
                        if (x[0] <= 143.0) {
                            votes[3] += -0.16650553;
                        }

                        else {
                            votes[3] += 0.19610767;
                        }

                        // tree #21
                        if (x[0] <= 34.0) {
                            votes[0] += 0.18502463;
                        }

                        else {
                            votes[0] += -0.16015258;
                        }

                        // tree #22
                        if (x[1] <= 97.0) {
                            if (x[0] <= 34.0) {
                                votes[1] += -0.1592127;
                            }

                            else {
                                votes[1] += 0.18624026;
                            }
                        }

                        else {
                            votes[1] += -0.15926114;
                        }

                        // tree #23
                        if (x[0] <= 46.0) {
                            if (x[0] <= 34.0) {
                                votes[2] += -0.15842743;
                            }

                            else {
                                votes[2] += 0.18721688;
                            }
                        }

                        else {
                            votes[2] += -0.15854025;
                        }

                        // tree #24
                        if (x[0] <= 143.0) {
                            votes[3] += -0.16200645;
                        }

                        else {
                            votes[3] += 0.18216847;
                        }

                        // tree #25
                        if (x[0] <= 34.0) {
                            votes[0] += 0.17473322;
                        }

                        else {
                            votes[0] += -0.15741163;
                        }

                        // tree #26
                        if (x[1] <= 97.0) {
                            if (x[0] <= 34.0) {
                                votes[1] += -0.15661788;
                            }

                            else {
                                votes[1] += 0.17552269;
                            }
                        }

                        else {
                            votes[1] += -0.15673867;
                        }

                        // tree #27
                        if (x[0] <= 46.0) {
                            if (x[0] <= 34.0) {
                                votes[2] += -0.15603723;
                            }

                            else {
                                votes[2] += 0.17608613;
                            }
                        }

                        else {
                            votes[2] += -0.15622795;
                        }

                        // tree #28
                        if (x[0] <= 143.0) {
                            votes[3] += -0.15873247;
                        }

                        else {
                            votes[3] += 0.17281741;
                        }

                        // tree #29
                        if (x[0] <= 34.0) {
                            votes[0] += 0.16765752;
                        }

                        else {
                            votes[0] += -0.1553801;
                        }

                        // tree #30
                        if (x[1] <= 97.0) {
                            if (x[0] <= 34.0) {
                                votes[1] += -0.15464565;
                            }

                            else {
                                votes[1] += 0.1681636;
                            }
                        }

                        else {
                            votes[1] += -0.15485203;
                        }

                        // tree #31
                        if (x[0] <= 46.0) {
                            if (x[0] <= 34.0) {
                                votes[2] += -0.15420498;
                            }

                            else {
                                votes[2] += 0.16843241;
                            }
                        }

                        else {
                            votes[2] += -0.154492;
                        }

                        // tree #32
                        if (x[0] <= 143.0) {
                            votes[3] += -0.1563235;
                        }

                        else {
                            votes[3] += 0.16635343;
                        }

                        // tree #33
                        if (x[0] <= 34.0) {
                            votes[0] += 0.16267225;
                        }

                        else {
                            votes[0] += -0.15385757;
                        }

                        // tree #34
                        if (x[1] <= 97.0) {
                            if (x[0] <= 34.0) {
                                votes[1] += -0.15310965;
                            }

                            else {
                                votes[1] += 0.1629761;
                            }
                        }

                        else {
                            votes[1] += -0.15342017;
                        }

                        // tree #35
                        if (x[0] <= 46.0) {
                            if (x[0] <= 34.0) {
                                votes[2] += -0.15276265;
                            }

                            else {
                                votes[2] += 0.16300932;
                            }
                        }

                        else {
                            votes[2] += -0.15317102;
                        }

                        // tree #36
                        if (x[0] <= 143.0) {
                            votes[3] += -0.15452796;
                        }

                        else {
                            votes[3] += 0.16178678;
                        }

                        // tree #37
                        if (x[0] <= 34.0) {
                            votes[0] += 0.1590887;
                        }

                        else {
                            votes[0] += -0.15269706;
                        }

                        // tree #38
                        if (x[1] <= 97.0) {
                            if (x[0] <= 34.0) {
                                votes[1] += -0.15186659;
                            }

                            else {
                                votes[1] += 0.15923673;
                            }
                        }

                        else {
                            votes[1] += -0.15230763;
                        }

                        // tree #39
                        if (x[0] <= 46.0) {
                            if (x[0] <= 34.0) {
                                votes[2] += -0.15157868;
                            }

                            else {
                                votes[2] += 0.15905726;
                            }
                        }

                        else {
                            votes[2] += -0.15214282;
                        }

                        // tree #40
                        if (x[0] <= 143.0) {
                            votes[3] += -0.15316547;
                        }

                        else {
                            votes[3] += 0.15850395;
                        }

                        // tree #41
                        if (x[0] <= 34.0) {
                            votes[0] += 0.15646262;
                        }

                        else {
                            votes[0] += -0.15178858;
                        }

                        // tree #42
                        if (x[1] <= 97.0) {
                            if (x[0] <= 34.0) {
                                votes[1] += -0.15080228;
                            }

                            else {
                                votes[1] += 0.15647905;
                            }
                        }

                        else {
                            votes[1] += -0.1514107;
                        }

                        // tree #43
                        if (x[0] <= 46.0) {
                            if (x[0] <= 34.0) {
                                votes[2] += -0.15054598;
                            }

                            else {
                                votes[2] += 0.15608394;
                            }
                        }

                        else {
                            votes[2] += -0.15131305;
                        }

                        // tree #44
                        if (x[0] <= 143.0) {
                            votes[3] += -0.15210319;
                        }

                        else {
                            votes[3] += 0.15610588;
                        }

                        // tree #45
                        if (x[0] <= 34.0) {
                            votes[0] += 0.15449437;
                        }

                        else {
                            votes[0] += -0.15104738;
                        }

                        // tree #46
                        if (x[1] <= 97.0) {
                            if (x[0] <= 34.0) {
                                votes[1] += -0.1498208;
                            }

                            else {
                                votes[1] += 0.15438767;
                            }
                        }

                        else {
                            votes[1] += -0.15064687;
                        }

                        // tree #47
                        if (x[0] <= 46.0) {
                            if (x[0] <= 34.0) {
                                votes[2] += -0.14957272;
                            }

                            else {
                                votes[2] += 0.15375203;
                            }
                        }

                        else {
                            votes[2] += -0.15060602;
                        }

                        // tree #48
                        if (x[0] <= 143.0) {
                            votes[3] += -0.15123996;
                        }

                        else {
                            votes[3] += 0.15432253;
                        }

                        // tree #49
                        if (x[0] <= 34.0) {
                            votes[0] += 0.15297359;
                        }

                        else {
                            votes[0] += -0.15040527;
                        }

                        // tree #50
                        if (x[1] <= 97.0) {
                            if (x[0] <= 34.0) {
                                votes[1] += -0.14883599;
                            }

                            else {
                                votes[1] += 0.15273936;
                            }
                        }

                        else {
                            votes[1] += -0.14994691;
                        }

                        // tree #51
                        if (x[0] <= 46.0) {
                            if (x[0] <= 34.0) {
                                votes[2] += -0.14857449;
                            }

                            else {
                                votes[2] += 0.15181679;
                            }
                        }

                        else {
                            votes[2] += -0.1499581;
                        }

                        // tree #52
                        if (x[0] <= 143.0) {
                            votes[3] += -0.15049556;
                        }

                        else {
                            votes[3] += 0.15296471;
                        }

                        // tree #53
                        if (x[0] <= 34.0) {
                            votes[0] += 0.15174618;
                        }

                        else {
                            votes[0] += -0.14980428;
                        }

                        // tree #54
                        if (x[1] <= 97.0) {
                            if (x[0] <= 34.0) {
                                votes[1] += -0.14776464;
                            }

                            else {
                                votes[1] += 0.15136804;
                            }
                        }

                        else {
                            votes[1] += -0.14924878;
                        }

                        // tree #55
                        if (x[0] <= 46.0) {
                            if (x[0] <= 34.0) {
                                votes[2] += -0.14746813;
                            }

                            else {
                                votes[2] += 0.15008898;
                            }
                        }

                        else {
                            votes[2] += -0.14931186;
                        }

                        // tree #56
                        if (x[0] <= 143.0) {
                            votes[3] += -0.14980227;
                        }

                        else {
                            votes[3] += 0.15189487;
                        }

                        // tree #57
                        if (x[0] <= 34.0) {
                            votes[0] += 0.15069361;
                        }

                        else {
                            votes[0] += -0.14919133;
                        }

                        // tree #58
                        if (x[1] <= 97.0) {
                            if (x[0] <= 34.0) {
                                votes[1] += -0.14652093;
                            }

                            else {
                                votes[1] += 0.15014249;
                            }
                        }

                        else {
                            votes[1] += -0.14849229;
                        }

                        // tree #59
                        if (x[0] <= 46.0) {
                            if (x[0] <= 34.0) {
                                votes[2] += -0.14616647;
                            }

                            else {
                                votes[2] += 0.1484113;
                            }
                        }

                        else {
                            votes[2] += -0.14861146;
                        }

                        // tree #60
                        if (x[0] <= 143.0) {
                            votes[3] += -0.14909884;
                        }

                        else {
                            votes[3] += 0.15100889;
                        }

                        // tree #61
                        if (x[0] <= 34.0) {
                            votes[0] += 0.1497189;
                        }

                        else {
                            votes[0] += -0.14851382;
                        }

                        // tree #62
                        if (x[1] <= 97.0) {
                            if (x[0] <= 34.0) {
                                votes[1] += -0.14501214;
                            }

                            else {
                                votes[1] += 0.14895162;
                            }
                        }

                        else {
                            votes[1] += -0.14761484;
                        }

                        // tree #63
                        if (x[0] <= 46.0) {
                            if (x[0] <= 34.0) {
                                votes[2] += -0.14457445;
                            }

                            else {
                                votes[2] += 0.14664312;
                            }
                        }

                        else {
                            votes[2] += -0.14779851;
                        }

                        // tree #64
                        if (x[0] <= 143.0) {
                            votes[3] += -0.14832543;
                        }

                        else {
                            votes[3] += 0.15022354;
                        }

                        // tree #65
                        if (x[0] <= 34.0) {
                            votes[0] += 0.14873706;
                        }

                        else {
                            votes[0] += -0.14771606;
                        }

                        // tree #66
                        if (x[1] <= 97.0) {
                            if (x[0] <= 34.0) {
                                votes[1] += -0.14313608;
                            }

                            else {
                                votes[1] += 0.1476939;
                            }
                        }

                        else {
                            votes[1] += -0.14654751;
                        }

                        // tree #67
                        if (x[0] <= 46.0) {
                            if (x[0] <= 34.0) {
                                votes[2] += -0.1425872;
                            }

                            else {
                                votes[2] += 0.1446504;
                            }
                        }

                        else {
                            votes[2] += -0.14680842;
                        }

                        // tree #68
                        if (x[0] <= 143.0) {
                            votes[3] += -0.1474193;
                        }

                        else {
                            votes[3] += 0.14946787;
                        }

                        // tree #69
                        if (x[0] <= 34.0) {
                            votes[0] += 0.14766821;
                        }

                        else {
                            votes[0] += -0.14673588;
                        }

                        // tree #70
                        if (x[1] <= 97.0) {
                            if (x[0] <= 34.0) {
                                votes[1] += -0.14078131;
                            }

                            else {
                                votes[1] += 0.14627014;
                            }
                        }

                        else {
                            votes[1] += -0.14521232;
                        }

                        // tree #71
                        if (x[0] <= 46.0) {
                            if (x[0] <= 34.0) {
                                votes[2] += -0.14009093;
                            }

                            else {
                                votes[2] += 0.14230047;
                            }
                        }

                        else {
                            votes[2] += -0.14556743;
                        }

                        // tree #72
                        if (x[0] <= 143.0) {
                            votes[3] += -0.14631161;
                        }

                        else {
                            votes[3] += 0.14867654;
                        }

                        // tree #73
                        if (x[0] <= 34.0) {
                            votes[0] += 0.14643298;
                        }

                        else {
                            votes[0] += -0.14550221;
                        }

                        // tree #74
                        if (x[1] <= 97.0) {
                            if (x[0] <= 34.0) {
                                votes[1] += -0.13783108;
                            }

                            else {
                                votes[1] += 0.14457862;
                            }
                        }

                        else {
                            votes[1] += -0.14352044;
                        }

                        // tree #75
                        if (x[0] <= 46.0) {
                            if (x[0] <= 34.0) {
                                votes[2] += -0.13696823;
                            }

                            else {
                                votes[2] += 0.1394624;
                            }
                        }

                        else {
                            votes[2] += -0.14399077;
                        }

                        // tree #76
                        if (x[0] <= 143.0) {
                            votes[3] += -0.14492507;
                        }

                        else {
                            votes[3] += 0.14778507;
                        }

                        // tree #77
                        if (x[0] <= 34.0) {
                            votes[0] += 0.14494969;
                        }

                        else {
                            votes[0] += -0.14393377;
                        }

                        // tree #78
                        if (x[1] <= 97.0) {
                            if (x[0] <= 34.0) {
                                votes[1] += -0.13417293;
                            }

                            else {
                                votes[1] += 0.14251265;
                            }
                        }

                        else {
                            votes[1] += -0.14137302;
                        }

                        // tree #79
                        if (x[0] <= 46.0) {
                            if (x[0] <= 34.0) {
                                votes[2] += -0.13310905;
                            }

                            else {
                                votes[2] += 0.13601129;
                            }
                        }

                        else {
                            votes[2] += -0.14198261;
                        }

                        // tree #80
                        if (x[0] <= 143.0) {
                            votes[3] += -0.14317335;
                        }

                        else {
                            votes[3] += 0.14672586;
                        }

                        // tree #81
                        if (x[0] <= 34.0) {
                            votes[0] += 0.14313494;
                        }

                        else {
                            votes[0] += -0.14193986;
                        }

                        // tree #82
                        if (x[1] <= 97.0) {
                            if (x[0] <= 34.0) {
                                votes[1] += -0.12971447;
                            }

                            else {
                                votes[1] += 0.1399646;
                            }
                        }

                        else {
                            votes[1] += -0.13866514;
                        }

                        // tree #83
                        if (x[0] <= 46.0) {
                            if (x[0] <= 34.0) {
                                votes[2] += -0.12842798;
                            }

                            else {
                                votes[2] += 0.13184258;
                            }
                        }

                        else {
                            votes[2] += -0.13943915;
                        }

                        // tree #84
                        if (x[0] <= 143.0) {
                            votes[3] += -0.140963;
                        }

                        else {
                            votes[3] += 0.14542629;
                        }

                        // tree #85
                        if (x[0] <= 34.0) {
                            votes[0] += 0.14090459;
                        }

                        else {
                            votes[0] += -0.13942418;
                        }

                        // tree #86
                        if (x[1] <= 97.0) {
                            if (x[0] <= 34.0) {
                                votes[1] += -0.12440428;
                            }

                            else {
                                votes[1] += 0.13682856;
                            }
                        }

                        else {
                            votes[1] += -0.13529477;
                        }

                        // tree #87
                        if (x[0] <= 46.0) {
                            if (x[0] <= 34.0) {
                                votes[2] += -0.12288625;
                            }

                            else {
                                votes[2] += 0.12688869;
                            }
                        }

                        else {
                            votes[2] += -0.13625629;
                        }

                        // tree #88
                        if (x[0] <= 143.0) {
                            votes[3] += -0.13819937;
                        }

                        else {
                            votes[3] += 0.14380807;
                        }

                        // tree #89
                        if (x[0] <= 34.0) {
                            votes[0] += 0.13818426;
                        }

                        else {
                            votes[0] += -0.1362931;
                        }

                        // tree #90
                        if (x[1] <= 97.0) {
                            if (x[0] <= 34.0) {
                                votes[1] += -0.118254066;
                            }

                            else {
                                votes[1] += 0.13301753;
                            }
                        }

                        else {
                            votes[1] += -0.13117744;
                        }

                        // tree #91
                        if (x[0] <= 46.0) {
                            if (x[0] <= 34.0) {
                                votes[2] += -0.11651314;
                            }

                            else {
                                votes[2] += 0.1211385;
                            }
                        }

                        else {
                            votes[2] += -0.13234267;
                        }

                        // tree #92
                        if (x[0] <= 143.0) {
                            votes[3] += -0.13479681;
                        }

                        else {
                            votes[3] += 0.14178868;
                        }

                        // tree #93
                        if (x[0] <= 34.0) {
                            votes[0] += 0.13491422;
                        }

                        else {
                            votes[0] += -0.13246894;
                        }

                        // tree #94
                        if (x[1] <= 97.0) {
                            if (x[0] <= 34.0) {
                                votes[1] += -0.11135444;
                            }

                            else {
                                votes[1] += 0.12847441;
                            }
                        }

                        else {
                            votes[1] += -0.12626508;
                        }

                        // tree #95
                        if (x[0] <= 46.0) {
                            if (x[0] <= 34.0) {
                                votes[2] += -0.1094193;
                            }

                            else {
                                votes[2] += 0.114659846;
                            }
                        }

                        else {
                            votes[2] += -0.12763815;
                        }

                        // tree #96
                        if (x[0] <= 143.0) {
                            votes[3] += -0.13069357;
                        }

                        else {
                            votes[3] += 0.13928697;
                        }

                        // tree #97
                        if (x[0] <= 34.0) {
                            votes[0] += 0.13106339;
                        }

                        else {
                            votes[0] += -0.12790683;
                        }

                        // tree #98
                        if (x[1] <= 97.0) {
                            if (x[0] <= 34.0) {
                                votes[1] += -0.103876136;
                            }

                            else {
                                votes[1] += 0.12319998;
                            }
                        }

                        else {
                            votes[1] += -0.12056615;
                        }

                        // tree #99
                        if (x[0] <= 46.0) {
                            if (x[0] <= 34.0) {
                                votes[2] += -0.10179384;
                            }

                            else {
                                votes[2] += 0.10759759;
                            }
                        }

                        else {
                            votes[2] += -0.12213427;
                        }

                        // tree #100
                        if (x[0] <= 143.0) {
                            votes[3] += -0.1258689;
                        }

                        else {
                            votes[3] += 0.13623422;
                        }

                        // tree #101
                        if (x[0] <= 34.0) {
                            votes[0] += 0.12663892;
                        }

                        else {
                            votes[0] += -0.12261228;
                        }

                        // tree #102
                        if (x[1] <= 97.0) {
                            if (x[0] <= 34.0) {
                                votes[1] += -0.09605235;
                            }

                            else {
                                votes[1] += 0.1172471;
                            }
                        }

                        else {
                            votes[1] += -0.1141598;
                        }

                        // tree #103
                        if (x[0] <= 46.0) {
                            if (x[0] <= 34.0) {
                                votes[2] += -0.09388206;
                            }

                            else {
                                votes[2] += 0.10016512;
                            }
                        }

                        else {
                            votes[2] += -0.11589127;
                        }

                        // tree #104
                        if (x[0] <= 143.0) {
                            votes[3] += -0.12035767;
                        }

                        else {
                            votes[3] += 0.13257933;
                        }

                        // tree #105
                        if (x[0] <= 34.0) {
                            votes[0] += 0.12169162;
                        }

                        else {
                            votes[0] += -0.116653554;
                        }

                        // tree #106
                        if (x[1] <= 97.0) {
                            if (x[0] <= 34.0) {
                                votes[1] += -0.0881448;
                            }

                            else {
                                votes[1] += 0.110761575;
                            }
                        }

                        else {
                            votes[1] += -0.10719734;
                        }

                        // tree #107
                        if (x[0] <= 46.0) {
                            if (x[0] <= 34.0) {
                                votes[2] += -0.08594908;
                            }

                            else {
                                votes[2] += 0.092600256;
                            }
                        }

                        else {
                            votes[2] += -0.10904363;
                        }

                        // tree #108
                        if (x[0] <= 143.0) {
                            votes[3] += -0.114256956;
                        }

                        else {
                            votes[3] += 0.12831418;
                        }

                        // tree #109
                        if (x[0] <= 34.0) {
                            votes[0] += 0.11631948;
                        }

                        else {
                            votes[0] += -0.110162385;
                        }

                        // tree #110
                        if (x[1] <= 97.0) {
                            if (x[0] <= 34.0) {
                                votes[1] += -0.08040434;
                            }

                            else {
                                votes[1] += 0.10390948;
                            }
                        }

                        else {
                            votes[1] += -0.09988664;
                        }

                        // tree #111
                        if (x[0] <= 46.0) {
                            if (x[0] <= 34.0) {
                                votes[2] += -0.078240365;
                            }

                            else {
                                votes[2] += 0.085164845;
                            }
                        }

                        else {
                            votes[2] += -0.101788595;
                        }

                        // tree #112
                        if (x[0] <= 143.0) {
                            votes[3] += -0.10771943;
                        }

                        else {
                            votes[3] += 0.12346906;
                        }

                        // tree #113
                        if (x[0] <= 34.0) {
                            votes[0] += 0.11064069;
                        }

                        else {
                            votes[0] += -0.103320755;
                        }

                        // tree #114
                        if (x[1] <= 97.0) {
                            if (x[2] <= 39.0) {
                                votes[1] += -0.06531578;
                            }

                            else {
                                votes[1] += 0.095567;
                            }
                        }

                        else {
                            votes[1] += -0.09246261;
                        }

                        // tree #115
                        if (x[0] <= 46.0) {
                            votes[2] += 0.009405381;
                        }

                        else {
                            votes[2] += -0.094359376;
                        }

                        // tree #116
                        if (x[0] <= 143.0) {
                            votes[3] += -0.100934036;
                        }

                        else {
                            votes[3] += 0.118113376;
                        }

                        // tree #117
                        if (x[0] <= 34.0) {
                            votes[0] += 0.105712526;
                        }

                        else {
                            votes[0] += -0.09679704;
                        }

                        // tree #118
                        if (x[1] <= 97.0) {
                            if (x[1] <= 34.0) {
                                votes[1] += -0.04134482;
                            }

                            else {
                                votes[1] += 0.08409069;
                            }
                        }

                        else {
                            votes[1] += -0.08571935;
                        }

                        // tree #119
                        if (x[0] <= 46.0) {
                            votes[2] += 0.008715013;
                        }

                        else {
                            votes[2] += -0.08708447;
                        }

                        // tree #120
                        if (x[0] <= 143.0) {
                            votes[3] += -0.09468474;
                        }

                        else {
                            votes[3] += 0.11238078;
                        }

                        // tree #121
                        if (x[0] <= 34.0) {
                            votes[0] += 0.101004355;
                        }

                        else {
                            votes[0] += -0.090548106;
                        }

                        // tree #122
                        if (x[1] <= 97.0) {
                            votes[1] += 0.030477384;
                        }

                        else {
                            votes[1] += -0.07929231;
                        }

                        // tree #123
                        if (x[0] <= 46.0) {
                            votes[2] += 0.00821448;
                        }

                        else {
                            votes[2] += -0.080305845;
                        }

                        // tree #124
                        if (x[0] <= 143.0) {
                            votes[3] += -0.08880309;
                        }

                        else {
                            votes[3] += 0.10639775;
                        }

                        // tree #125
                        if (x[0] <= 34.0) {
                            votes[0] += 0.097163625;
                        }

                        else {
                            votes[0] += -0.084815495;
                        }

                        // tree #126
                        if (x[1] <= 53.0) {
                            votes[1] += 0.009272211;
                        }

                        else {
                            votes[1] += -0.038667873;
                        }

                        // tree #127
                        if (x[1] <= 97.0) {
                            votes[2] += -0.07559019;
                        }

                        else {
                            votes[2] += 0.0100798085;
                        }

                        // tree #128
                        if (x[0] <= 143.0) {
                            votes[3] += -0.08350775;
                        }

                        else {
                            votes[3] += 0.100305654;
                        }

                        // tree #129
                        if (x[0] <= 34.0) {
                            votes[0] += 0.0921193;
                        }

                        else {
                            votes[0] += -0.07975202;
                        }

                        // tree #130
                        if (x[1] <= 53.0) {
                            votes[1] += 0.008800701;
                        }

                        else {
                            votes[1] += -0.034754768;
                        }

                        // tree #131
                        if (x[1] <= 135.0) {
                            votes[2] += -0.056563232;
                        }

                        else {
                            votes[2] += 0.0020829516;
                        }

                        // tree #132
                        if (x[0] <= 143.0) {
                            votes[3] += -0.07891242;
                        }

                        else {
                            votes[3] += 0.09558724;
                        }

                        // tree #133
                        if (x[0] <= 34.0) {
                            votes[0] += 0.08743601;
                        }

                        else {
                            votes[0] += -0.075151235;
                        }

                        // tree #134
                        if (x[1] <= 53.0) {
                            votes[1] += 0.008570964;
                        }

                        else {
                            votes[1] += -0.03143779;
                        }

                        // tree #135
                        votes[2] += -0.030937618;
                        // tree #136
                        if (x[4] <= 278.0) {
                            votes[3] += -0.073934644;
                        }

                        else {
                            votes[3] += 0.09076269;
                        }

                        // tree #137
                        if (x[3] <= 43.0) {
                            votes[0] += 0.080086894;
                        }

                        else {
                            votes[0] += -0.059899352;
                        }

                        // tree #138
                        if (x[1] <= 53.0) {
                            votes[1] += 0.008645115;
                        }

                        else {
                            votes[1] += -0.02872911;
                        }

                        // tree #139
                        votes[2] += -0.027117293;
                        // tree #140
                        if (x[3] <= 360.0) {
                            votes[3] += -0.053320598;
                        }

                        else {
                            votes[3] += 0.08109954;
                        }

                        // tree #141
                        votes[0] += 0.01569281;
                        // tree #142
                        if (x[0] <= 68.0) {
                            votes[1] += -0.027877515;
                        }

                        else {
                            votes[1] += 0.010677488;
                        }

                        // tree #143
                        votes[2] += -0.024128547;
                        // tree #144
                        if (x[4] <= 279.0) {
                            votes[3] += -0.050216287;
                        }

                        else {
                            votes[3] += 0.07668364;
                        }

                        // tree #145
                        votes[0] += 0.013310076;
                        // tree #146
                        votes[1] += -0.010576572;
                        // tree #147
                        votes[2] += -0.021517832;
                        // tree #148
                        votes[3] += 0.017388124;
                        // tree #149
                        votes[0] += 0.011555061;
                        // tree #150
                        votes[1] += -0.008984704;
                        // tree #151
                        votes[2] += -0.018855881;
                        // tree #152
                        votes[3] += 0.015062268;
                        // tree #153
                        votes[0] += 0.010006806;
                        // tree #154
                        votes[1] += -0.0076181376;
                        // tree #155
                        votes[2] += -0.016506378;
                        // tree #156
                        votes[3] += 0.013008985;
                        // tree #157
                        votes[0] += 0.008668989;
                        // tree #158
                        votes[1] += -0.0064601726;
                        // tree #159
                        votes[2] += -0.014461624;
                        // tree #160
                        votes[3] += 0.011281364;
                        // tree #161
                        votes[0] += 0.0075321435;
                        // tree #162
                        votes[1] += -0.0054863547;
                        // tree #163
                        votes[2] += -0.012653016;
                        // tree #164
                        votes[3] += 0.009741815;
                        // tree #165
                        votes[0] += 0.0065045836;
                        // tree #166
                        votes[1] += -0.0046319063;
                        // tree #167
                        votes[2] += -0.011066807;
                        // tree #168
                        votes[3] += 0.008435001;
                        // tree #169
                        votes[0] += 0.00562634;
                        // tree #170
                        votes[1] += -0.003917883;
                        // tree #171
                        votes[2] += -0.009689668;
                        // tree #172
                        votes[3] += 0.0072933207;
                        // tree #173
                        votes[0] += 0.0048881844;
                        // tree #174
                        votes[1] += -0.0033043574;
                        // tree #175
                        votes[2] += -0.00847508;
                        // tree #176
                        votes[3] += 0.006306232;
                        // tree #177
                        votes[0] += 0.0042432407;
                        // tree #178
                        votes[1] += -0.0028036833;
                        // tree #179
                        votes[2] += -0.0074089705;
                        // tree #180
                        votes[3] += 0.0054540285;
                        // tree #181
                        votes[0] += 0.003683315;
                        // tree #182
                        votes[1] += -0.002357162;
                        // tree #183
                        votes[2] += -0.0064924094;
                        // tree #184
                        votes[3] += 0.004740396;
                        // tree #185
                        votes[0] += 0.0032053827;
                        // tree #186
                        votes[1] += -0.001998551;
                        // tree #187
                        votes[2] += -0.0056811576;
                        // tree #188
                        votes[3] += 0.004085518;
                        // tree #189
                        votes[0] += 0.0027578662;
                        // tree #190
                        votes[1] += -0.0016817973;
                        // tree #191
                        votes[2] += -0.00496455;
                        // tree #192
                        votes[3] += 0.0035418966;
                        // tree #193
                        votes[0] += 0.002386815;
                        // tree #194
                        votes[1] += -0.0014077391;
                        // tree #195
                        votes[2] += -0.0043401793;
                        // tree #196
                        votes[3] += 0.003046069;
                        // tree #197
                        votes[0] += 0.0020839812;
                        // tree #198
                        votes[1] += -0.0011797836;
                        // tree #199
                        votes[2] += -0.0038072716;
                        // tree #200
                        votes[3] += 0.0026535147;
                        // tree #201
                        votes[0] += 0.001803443;
                        // tree #202
                        votes[1] += -0.0009979547;
                        // tree #203
                        votes[2] += -0.0033160422;
                        // tree #204
                        votes[3] += 0.0023041863;
                        // tree #205
                        votes[0] += 0.0015867555;
                        // tree #206
                        votes[1] += -0.0008249956;
                        // tree #207
                        votes[2] += -0.0029110513;
                        // tree #208
                        votes[3] += 0.0019743228;
                        // tree #209
                        votes[0] += 0.0013828966;
                        // tree #210
                        votes[1] += -0.00070549484;
                        // tree #211
                        votes[2] += -0.0025359795;
                        // tree #212
                        votes[3] += 0.0016708641;
                        // tree #213
                        votes[0] += 0.0011946838;
                        // tree #214
                        votes[1] += -0.0005845438;
                        // tree #215
                        votes[2] += -0.002220679;
                        // tree #216
                        votes[3] += 0.0014706933;
                        // tree #217
                        votes[0] += 0.0010182682;
                        // tree #218
                        votes[1] += -0.00048608702;
                        // tree #219
                        votes[2] += -0.0019476631;
                        // tree #220
                        votes[3] += 0.0012806674;
                        // tree #221
                        votes[0] += 0.0009040426;
                        // tree #222
                        votes[1] += -0.000410435;
                        // tree #223
                        votes[2] += -0.0017081603;
                        // tree #224
                        votes[3] += 0.0011018836;
                        // tree #225
                        votes[0] += 0.0007925176;
                        // tree #226
                        votes[1] += -0.00034203898;
                        // tree #227
                        votes[2] += -0.0014872743;
                        // tree #228
                        votes[3] += 0.0009409069;
                        // tree #229
                        votes[0] += 0.00069200236;
                        // tree #230
                        votes[1] += -0.0002792155;
                        // tree #231
                        votes[2] += -0.0012993689;
                        // tree #232
                        votes[3] += 0.0007973264;
                        // tree #233
                        votes[0] += 0.0005974665;
                        // tree #234
                        votes[1] += -0.00022148075;
                        // tree #235
                        votes[2] += -0.0011392079;
                        // tree #236
                        votes[3] += 0.0007246268;
                        // tree #237
                        votes[0] += 0.0005094426;
                        // tree #238
                        votes[1] += -0.0001898097;
                        // tree #239
                        votes[2] += -0.0009950987;
                        // tree #240
                        votes[3] += 0.0006018168;
                        // tree #241
                        votes[0] += 0.00042610022;
                        // tree #242
                        votes[1] += -0.00015115945;
                        // tree #243
                        votes[2] += -0.0008731845;
                        // tree #244
                        votes[3] += 0.0005486392;
                        // tree #245
                        votes[0] += 0.00040004213;
                        // tree #246
                        votes[1] += -0.0001335991;
                        // tree #247
                        votes[2] += -0.00076201215;
                        // tree #248
                        votes[3] += 0.00043310138;
                        // tree #249
                        votes[0] += 0.000323203;
                        // tree #250
                        votes[1] += -0.00010091584;
                        // tree #251
                        votes[2] += -0.00067370606;
                        // tree #252
                        votes[3] += 0.00039588875;
                        // tree #253
                        votes[0] += 0.00030314917;
                        // tree #254
                        votes[1] += -8.26204e-05;
                        // tree #255
                        votes[2] += -0.0005942311;
                        // tree #256
                        votes[3] += 0.0003679281;
                        // tree #257
                        votes[0] += 0.00023309472;
                        // tree #258
                        votes[1] += -7.052295e-05;
                        // tree #259
                        votes[2] += -0.000519017;
                        // tree #260
                        votes[3] += 0.0003329511;
                        // tree #261
                        votes[0] += 0.00021900627;
                        // tree #262
                        votes[1] += -5.182268e-05;
                        // tree #263
                        votes[2] += -0.000448945;
                        // tree #264
                        votes[3] += 0.00023561213;
                        // tree #265
                        votes[0] += 0.00020523374;
                        // tree #266
                        votes[1] += -3.8965773e-05;
                        // tree #267
                        votes[2] += -0.00038695429;
                        // tree #268
                        votes[3] += 0.00021893783;
                        // tree #269
                        votes[0] += 0.00014097808;
                        // tree #270
                        votes[1] += -3.310536e-05;
                        // tree #271
                        votes[2] += -0.00034047302;
                        // tree #272
                        votes[3] += 0.00020412469;
                        // tree #273
                        votes[0] += 0.00013229711;
                        // tree #274
                        votes[1] += -2.9753555e-05;
                        // tree #275
                        votes[2] += -0.00030060203;
                        // tree #276
                        votes[3] += 0.00018592822;
                        // tree #277
                        votes[0] += 0.00012436385;
                        // tree #278
                        votes[1] += -2.6497033e-05;
                        // tree #279
                        votes[2] += -0.00026301199;
                        // tree #280
                        votes[3] += 0.00016726769;
                        // tree #281
                        votes[0] += 0.00011704534;
                        // tree #282
                        votes[1] += -2.3383365e-05;
                        // tree #283
                        votes[2] += -0.00022758938;
                        // tree #284
                        votes[3] += 0.00014882156;
                        // tree #285
                        votes[0] += 0.000110339715;
                        // tree #286
                        votes[1] += -7.889135e-06;
                        // tree #287
                        votes[2] += -0.00019419736;
                        // tree #288
                        votes[3] += 7.1573944e-05;
                        // tree #289
                        votes[0] += 9.9115365e-05;
                        // tree #290
                        votes[1] += -6.7249152e-06;
                        // tree #291
                        votes[2] += -0.00018227413;
                        // tree #292
                        votes[3] += 6.6356246e-05;
                        // tree #293
                        votes[0] += 9.275119e-05;
                        // tree #294
                        votes[1] += -5.7489674e-06;
                        // tree #295
                        votes[2] += -0.00015242818;
                        // tree #296
                        votes[3] += 6.145878e-05;
                        // tree #297
                        votes[0] += 3.9279672e-05;
                        // tree #298
                        votes[1] += -4.647595e-06;
                        // tree #299
                        votes[2] += -0.00013961967;
                        // tree #300
                        votes[3] += 5.7199948e-05;
                        // tree #301
                        votes[0] += 3.630772e-05;
                        // tree #302
                        votes[1] += -4.528578e-06;
                        // tree #303
                        votes[2] += -0.00011608449;
                        // tree #304
                        votes[3] += 5.2645e-05;
                        // tree #305
                        votes[0] += 3.377811e-05;
                        // tree #306
                        votes[1] += -4.245623e-06;
                        // tree #307
                        votes[2] += -0.00010926308;
                        // tree #308
                        votes[3] += 4.8644597e-05;
                        // tree #309
                        votes[0] += 3.136052e-05;
                        // tree #310
                        votes[1] += -4.0017826e-06;
                        // tree #311
                        votes[2] += -8.4167346e-05;
                        // tree #312
                        votes[3] += 4.4902223e-05;
                        // tree #313
                        votes[0] += 2.9351855e-05;
                        // tree #314
                        votes[1] += -3.556492e-06;
                        // tree #315
                        votes[2] += -7.900633e-05;
                        // tree #316
                        votes[3] += 3.7632955e-05;
                        // tree #317
                        votes[0] += 2.7398632e-05;
                        // tree #318
                        votes[1] += -3.219845e-06;
                        // tree #319
                        votes[2] += -7.424288e-05;
                        // tree #320
                        votes[3] += 3.4873425e-05;
                        // tree #321
                        votes[0] += 2.5571584e-05;
                        // tree #322
                        votes[1] += -1.8907491e-06;
                        // tree #323
                        votes[2] += -6.6586115e-05;
                        // tree #324
                        votes[3] += 3.229045e-05;
                        // tree #325
                        votes[0] += 2.39056e-05;
                        // tree #326
                        votes[1] += -1.6473671e-06;
                        // tree #327
                        votes[2] += -4.707075e-05;
                        // tree #328
                        votes[3] += 2.9960236e-05;
                        // tree #329
                        votes[0] += 2.25791e-05;
                        // tree #330
                        votes[1] += -1.2244458e-06;
                        // tree #331
                        votes[2] += -4.398635e-05;
                        // tree #332
                        votes[3] += 2.8042026e-05;
                        // tree #333
                        votes[0] += 2.1335802e-05;
                        // tree #334
                        votes[1] += -8.163151e-07;
                        // tree #335
                        votes[2] += -4.1140138e-05;
                        // tree #336
                        votes[3] += 2.6227937e-05;
                        // tree #337
                        votes[0] += 2.0136818e-05;
                        // tree #338
                        votes[1] += -4.531235e-07;
                        // tree #339
                        votes[2] += -3.8451904e-05;
                        // tree #340
                        votes[3] += 2.4238418e-05;
                        // tree #341
                        votes[0] += 1.9029882e-05;
                        // tree #342
                        votes[1] += -1.30804e-07;
                        // tree #343
                        votes[2] += -3.591437e-05;
                        // tree #344
                        votes[3] += 2.269196e-05;
                        // tree #345
                        votes[0] += 1.8001349e-05;
                        // tree #346
                        votes[1] += 1.097303e-05;
                        // tree #347
                        votes[2] += -3.0340532e-05;
                        // tree #348
                        votes[3] += 2.1260092e-05;
                        // tree #349
                        votes[0] += 1.7257924e-05;
                        // tree #350
                        votes[1] += -1.1064184e-07;
                        // tree #351
                        votes[2] += -2.8118635e-05;
                        // tree #352
                        votes[3] += 2.019266e-05;
                        // tree #353
                        votes[0] += 1.6378905e-05;
                        // tree #354
                        votes[1] += 1.1031357e-05;
                        // tree #355
                        votes[2] += -2.6179112e-05;
                        // tree #356
                        votes[3] += 1.899899e-05;
                        // tree #357
                        votes[0] += 1.1519211e-05;
                        // tree #358
                        votes[1] += 1.0778545e-05;
                        // tree #359
                        votes[2] += -8.7661565e-06;
                        // tree #360
                        votes[3] += 1.8096916e-05;
                        // tree #361
                        votes[0] += 1.13581045e-05;
                        // tree #362
                        votes[1] += -1.5230428e-07;
                        // tree #363
                        votes[2] += -7.7094655e-06;
                        // tree #364
                        votes[3] += 1.7426548e-05;
                        // tree #365
                        votes[0] += 1.1004524e-05;
                        // tree #366
                        votes[1] += 1.1326245e-05;
                        // tree #367
                        votes[2] += -6.8723625e-06;
                        // tree #368
                        votes[3] += 1.661045e-05;
                        // tree #369
                        votes[0] += 1.0858785e-05;
                        // tree #370
                        votes[1] += 1.0915588e-05;
                        // tree #371
                        votes[2] += -5.9643744e-06;
                        // tree #372
                        votes[3] += 1.6051652e-05;
                        // tree #373
                        votes[0] += 1.0703394e-05;
                        // tree #374
                        votes[1] += 1.0772342e-05;
                        // tree #375
                        votes[2] += -5.063964e-06;
                        // tree #376
                        votes[3] += 9.495937e-06;
                        // tree #377
                        votes[0] += 1.046122e-05;
                        // tree #378
                        votes[1] += -2.7710712e-07;
                        // tree #379
                        votes[2] += -4.343229e-06;
                        // tree #380
                        votes[3] += 9.320959e-06;
                        // tree #381
                        votes[0] += 1.0053358e-05;
                        // tree #382
                        votes[1] += 1.0879415e-05;
                        // tree #383
                        votes[2] += -3.8086694e-06;
                        // tree #384
                        votes[3] += 8.9128525e-06;
                        // tree #385
                        votes[0] += 9.8594455e-06;
                        // tree #386
                        votes[1] += -2.1516225e-07;
                        // tree #387
                        votes[2] += -3.1757547e-06;
                        // tree #388
                        votes[3] += 8.767763e-06;
                        // tree #389
                        votes[0] += 9.468657e-06;
                        // tree #390
                        votes[1] += 1.0912402e-05;
                        // tree #391
                        votes[2] += -2.716446e-06;
                        // tree #392
                        votes[3] += 8.358943e-06;
                        // tree #393
                        votes[0] += 9.317735e-06;
                        // tree #394
                        votes[1] += 1.0664673e-05;
                        // tree #395
                        votes[2] += -2.106531e-06;
                        // tree #396
                        votes[3] += 8.239694e-06;
                        // tree #397
                        votes[0] += 9.149e-06;
                        // tree #398
                        votes[1] += -3.948706e-07;
                        // tree #399
                        votes[2] += -1.5951157e-06;
                        // tree #400
                        votes[3] += 8.1596245e-06;
                        // return argmax of votes
                        uint8_t classIdx = 0;
                        float maxVotes = votes[0];

                        for (uint8_t i = 1; i < 4; i++) {
                            if (votes[i] > maxVotes) {
                                classIdx = i;
                                maxVotes = votes[i];
                            }
                        }

                        return classIdx;
                    }

                    /**
                    * Predict readable class name
                    */
                    const char* predictLabel(float *x) {
                        return idxToLabel(predict(x));
                    }

                    /**
                    * Convert class idx to readable name
                    */
                    const char* idxToLabel(uint8_t classIdx) {
                        switch (classIdx) {
                            case 0:
                            return "black";
                            case 1:
                            return "blue";
                            case 2:
                            return "red";
                            case 3:
                            return "white";
                            default:
                            return "Houston we have a problem";
                        }
                    }

                protected:
                };
            }
        }
    }